{"scale_mean": [0.28024041652679443, 0.3452858626842499, 0.3842642605304718, 0.36712759733200073, 0.2714442312717438, 0.3064303696155548, 0.35457587242126465, 0.3659095764160156, 0.3699681758880615, 0.36234933137893677, 0.36702507734298706, 0.3343757092952728, 0.3090653419494629, 0.2642476260662079, 0.24039071798324585, 0.2236613929271698], "scale_std": [0.1442226767539978, 0.1175791323184967, 0.15912391245365143, 0.19580227136611938, 0.18880417943000793, 0.1694888174533844, 0.1521025002002716, 0.14222405850887299, 0.14095351099967957, 0.14322799444198608, 0.1466713398694992, 0.1531396210193634, 0.16346830129623413, 0.1655987948179245, 0.16721129417419434, 0.15871982276439667], "W1": [[-0.03063378669321537, 0.34048184752464294, 0.11776837706565857, 0.029855605214834213, -0.22214758396148682, -0.2425285130739212, -0.34846097230911255, 0.22405487298965454, 0.024957379326224327, 0.10393837094306946, -0.3779428005218506, 0.28260183334350586, 0.2658262550830841, -0.16563835740089417, -0.23628076910972595, -0.2713008224964142, -0.18961510062217712, 0.039980363100767136, 0.00460780318826437, -0.1536097228527069, 0.028397211804986, -0.29658767580986023, -0.09889663010835648, -0.03032754920423031, 0.013106320053339005, 0.26698538661003113, -0.2542570233345032, 0.05503200739622116, 0.10945075750350952, -0.2662234306335449, 0.05119914188981056, -0.2700960338115692], [-0.342424213886261, 0.3663042485713959, 0.2842881679534912, 0.1782347708940506, -0.19381935894489288, -0.23637565970420837, 0.18224453926086426, -0.08238863199949265, -0.22454823553562164, 0.0336589515209198, -0.3671708405017853, 0.33058613538742065, -0.21575064957141876, 0.07752662152051926, -0.1800246238708496, 0.02220519632101059, 0.08693655580282211, -0.2574576437473297, 0.2869492769241333, 0.14615952968597412, 0.3517836928367615, 0.27890634536743164, 0.031624071300029755, 0.3183788061141968, -0.33681726455688477, -0.25624239444732666, -0.341928631067276, -0.12425964325666428, -0.12613581120967865, -0.19923990964889526, 0.24239058792591095, -0.06326239556074142], [-0.21611979603767395, 0.08478040993213654, -0.3005622327327728, 0.18585194647312164, -0.35904955863952637, 0.3807589113712311, 0.24660158157348633, -0.24805587530136108, -0.304057776927948, 0.26434797048568726, 0.10582587867975235, 0.2053392082452774, 0.13904015719890594, -0.3521779477596283, -0.1520586460828781, -0.24413375556468964, 0.3130834996700287, 0.05092443898320198, -0.17132727801799774, -0.3158430755138397, -0.07975555956363678, -0.08060853183269501, 0.11853256076574326, 0.1207461729645729, 0.2266876995563507, -0.06947893649339676, -0.24095895886421204, 0.1852407306432724, 0.12560665607452393, -0.009869461879134178, 0.22857566177845, 0.03567206487059593], [0.019926097244024277, -0.013787626288831234, -0.37746140360832214, -0.27806994318962097, -0.3815461993217468, 0.13495096564292908, -0.086000956594944, -0.03814592584967613, 0.3337630331516266, -0.13837237656116486, -0.10221200436353683, 0.2186281979084015, -0.23426061868667603, -0.3446597754955292, -0.19966840744018555, -0.20223593711853027, 0.35502564907073975, 0.18960358202457428, 0.08989505469799042, 0.2078181952238083, 0.22164694964885712, -0.17990989983081818, 0.2404262274503708, -0.0020322734490036964, 0.17509642243385315, 0.25090792775154114, -0.13004803657531738, -0.23694798350334167, -0.2238633930683136, -0.09846844524145126, 0.24577772617340088, 0.2883455753326416], [-0.2931206226348877, -0.03845570608973503, -0.011808502487838268, -0.20449307560920715, -0.25708529353141785, -0.13599389791488647, 0.2621097266674042, -0.08134233951568604, -0.031162353232502937, 0.10385854542255402, -0.13368399441242218, 0.30383142828941345, 0.3743561804294586, -0.14978595077991486, -0.03315308317542076, -0.17842508852481842, -0.19464850425720215, -0.28977540135383606, 0.12779195606708527, -0.031571295112371445, -0.3705183267593384, -0.1942705512046814, 0.3229137063026428, -0.1890714168548584, -0.20635105669498444, 0.04269229248166084, 0.3111370801925659, -0.1307448297739029, 0.18136177957057953, 0.24097906053066254, -0.2276979684829712, 0.11847474426031113], [-0.042194053530693054, 0.13520579040050507, 0.056397296488285065, -0.01804656721651554, -0.2981303036212921, 0.2466522455215454, -0.12283685803413391, -0.18215332925319672, -0.3312870264053345, 0.013415700756013393, 0.10228037089109421, -0.38660928606987, 0.011904708109796047, -0.2182544767856598, 0.09133945405483246, -0.28543564677238464, 0.14082740247249603, -0.11365430057048798, 0.3202344477176666, -0.24322578310966492, -0.08547087758779526, -0.31737151741981506, 0.32779979705810547, 0.3254631757736206, -0.1900995373725891, 0.1297134906053543, 0.18235696852207184, 0.07524655014276505, 0.052140746265649796, -0.1225418820977211, -0.31345152854919434, 0.25345057249069214], [0.3008787930011749, 0.14645928144454956, -0.1591079831123352, -0.12720990180969238, 0.13065019249916077, 0.2841532826423645, 0.3178454637527466, 0.15567320585250854, 0.13319110870361328, -0.265080988407135, -0.27963265776634216, 0.29395976662635803, 0.0318954698741436, -0.3942134380340576, -0.32410767674446106, 0.09360648691654205, -0.3080854117870331, -0.2759765684604645, -0.010207456536591053, 0.11639556288719177, 0.1587831974029541, -0.18467627465724945, 0.1159791499376297, -0.13641798496246338, -0.1652829498052597, 0.14009371399879456, 0.08183574676513672, 0.2892192304134369, 0.0635518804192543, 0.008415336720645428, -0.24591723084449768, -0.0460270456969738], [-0.18570823967456818, -0.14050711691379547, 0.2893364727497101, -0.10035981982946396, 0.2162119597196579, 0.12843653559684753, 0.2600517272949219, -0.03196728229522705, 0.09771326929330826, 0.021972650662064552, -0.2577311098575592, 0.19265028834342957, -0.20487970113754272, -0.38560929894447327, 0.05483381822705269, -0.20622693002223969, 0.3611863851547241, 0.28680819272994995, 0.24289387464523315, -0.09751008450984955, -0.2914760708808899, 0.33166369795799255, -0.09166793525218964, 0.35943061113357544, 0.2825537621974945, 0.20926116406917572, -0.14447826147079468, -0.05429256334900856, 0.19277408719062805, -0.17968615889549255, -0.20027503371238708, 0.07767743617296219], [0.3077153265476227, 0.19145752489566803, 0.005821737460792065, -0.29778018593788147, 0.02354816161096096, 0.3817521631717682, -0.20089592039585114, -0.02171221375465393, 0.31199362874031067, 0.20551609992980957, 0.08819789439439774, 0.18472594022750854, -0.15042299032211304, -0.19590705633163452, 0.16898679733276367, 0.24913108348846436, 0.31358492374420166, 0.26091447472572327, -0.04364822432398796, 0.022479219362139702, 0.26223382353782654, 0.1513521671295166, 0.10271289199590683, 0.2218182533979416, 0.2300410270690918, -0.16295604407787323, -0.08407405018806458, -0.2579401731491089, -5.185773261473514e-05, -0.3797556757926941, 0.012806183658540249, 0.07429678738117218], [-0.1846044957637787, 0.12169291079044342, -0.3792199492454529, -0.3424375653266907, 0.17389371991157532, -0.06659011542797089, -0.21244953572750092, -0.0159892775118351, 0.23088745772838593, -0.1610749214887619, 0.044025275856256485, -0.2490750104188919, -0.36823341250419617, -0.019609440118074417, -0.021756866946816444, 0.1271832138299942, 0.2145702987909317, 0.3066379725933075, -0.03359050676226616, -0.14246606826782227, 0.2532711923122406, -0.12707951664924622, -0.0866481140255928, -0.31791189312934875, -0.3803378641605377, 0.3055192232131958, 0.22598837316036224, 0.17777390778064728, -0.12016932666301727, -0.2810463011264801, -0.2065933346748352, -0.14479435980319977], [-0.016990505158901215, 0.19275450706481934, 0.07496561855077744, -0.16285774111747742, 0.26607683300971985, 0.20081596076488495, 0.0894528329372406, 0.04087742418050766, -0.014061271212995052, -0.14080679416656494, -0.13988900184631348, 0.2180311530828476, -0.3916923701763153, -0.32195746898651123, -0.37280187010765076, -0.2961198687553406, 0.30325832962989807, 0.11302413046360016, -0.06618884205818176, -0.25405633449554443, 0.042715445160865784, 0.021053580567240715, -0.2716086208820343, -0.039022915065288544, -0.11650949716567993, 0.04148470610380173, 0.10116734355688095, -0.2873082756996155, -0.1408429890871048, 0.040867093950510025, 0.035250648856163025, 0.2898866832256317], [0.14033624529838562, -0.27266818284988403, -0.34064626693725586, 0.07504431903362274, -0.3828774690628052, 0.10230576246976852, 0.3436829745769501, 0.008016259409487247, -0.04382769763469696, 0.12109643965959549, -0.07482408732175827, 0.058748867362737656, 0.2755119502544403, -0.11353137344121933, 0.28262460231781006, 0.3213692903518677, -0.22326940298080444, -0.3092927038669586, -0.2624303102493286, -0.3936883509159088, -0.2517188787460327, 0.10589590668678284, -0.34053534269332886, -0.16561506688594818, 0.20285606384277344, -0.29173728823661804, 0.17795176804065704, -0.13852131366729736, -0.30276742577552795, 0.09698569774627686, 0.09270740300416946, 0.23641018569469452], [0.21378497779369354, 0.1686060130596161, -0.16920824348926544, -0.23575350642204285, 0.22509078681468964, 0.2455255091190338, 0.3065807521343231, -0.0663309246301651, -0.11996300518512726, 0.14584535360336304, -0.1545676738023758, 0.27518680691719055, 0.25397953391075134, -0.029055103659629822, 0.1353849172592163, 0.21610033512115479, -0.298283189535141, 0.3135221004486084, 0.05005188286304474, 0.18926233053207397, -0.17022719979286194, 0.2541627883911133, -0.06517010182142258, -0.36823153495788574, 0.3154841661453247, -0.24522808194160461, -0.16579633951187134, 0.36063745617866516, 0.373769074678421, 0.0656791478395462, 0.056498486548662186, -0.06850005686283112], [-0.08972132205963135, -0.1747930347919464, 0.16670942306518555, 0.17102988064289093, 0.26188334822654724, 0.1878679245710373, -0.3368349075317383, 0.021291788667440414, -0.3572086691856384, -0.013007499277591705, -0.07393188774585724, 0.23529890179634094, -0.040789391845464706, -0.21805427968502045, -0.23358573019504547, 0.16787751019001007, 0.042025938630104065, -0.24850276112556458, -0.24325166642665863, 0.10567343980073929, -0.3537408709526062, 0.19592207670211792, 0.18973621726036072, -0.2822398841381073, -0.25091809034347534, 0.3962385058403015, -0.1238366961479187, -0.04745614156126976, 0.28252890706062317, 0.3772689998149872, 0.2890159487724304, 0.1385543793439865], [-0.03003680519759655, -0.34709465503692627, 0.20106160640716553, 0.007646325975656509, 0.0029725804924964905, 0.28824421763420105, -0.3287757635116577, 0.01793900690972805, -0.3926801085472107, -0.06979325413703918, -0.3426738977432251, -0.3065338134765625, -0.20618370175361633, 0.15986840426921844, 0.23904527723789215, 0.0339367613196373, 0.2724440395832062, -0.050029922276735306, -0.09825611114501953, 0.22485961019992828, -0.24916383624076843, 0.28802594542503357, -0.29731008410453796, 0.3483407199382782, -0.27570056915283203, 0.3317238986492157, -0.01663380116224289, 0.3873522877693176, -0.23719359934329987, 0.0971580520272255, 0.28016817569732666, -0.025176942348480225], [0.14868439733982086, 0.09251687675714493, 0.008194804191589355, 0.08631164580583572, 0.11992963403463364, 0.26943081617355347, -0.37713778018951416, -0.11442574858665466, 0.27104735374450684, 0.2289210557937622, -0.060842208564281464, 0.04505248740315437, -0.0927278995513916, -0.1671370416879654, 0.037634819746017456, -0.14434245228767395, 0.00264649442397058, -0.2607806622982025, 0.38719937205314636, 0.32599830627441406, 0.08594098687171936, -0.015758922323584557, -0.08737301081418991, 0.24810418486595154, 0.1781613528728485, -0.1835578978061676, 0.25294360518455505, 0.2756434679031372, 0.3822537064552307, 0.21944758296012878, 0.03193000331521034, -0.09744413942098618]], "b1": [0.3693203330039978, 0.3019322156906128, -0.27667236328125, -0.3329911231994629, -0.0333898663520813, 0.25487595796585083, 0.30728915333747864, -0.29201313853263855, 0.030872898176312447, -0.1288914680480957, 0.3890858292579651, 0.21528711915016174, 0.2989133894443512, 0.03241454064846039, -0.0022132627200335264, -0.1443503201007843, -0.26784592866897583, 0.24587684869766235, 0.2782308757305145, 0.33569738268852234, 0.30089297890663147, 0.0007716519176028669, 0.2443116307258606, 0.3787963092327118, 0.29956305027008057, -0.11698966473340988, -0.06839613616466522, -0.21074983477592468, 0.3848707377910614, 0.13235975801944733, -0.24131102859973907, 0.08598759025335312], "W2": [[0.14618125557899475, -0.048081718385219574, -0.2327752560377121, 0.17802245914936066, 0.07498858124017715, 0.149510458111763, 0.06892216205596924, 0.20403435826301575, 0.08214911073446274, 0.10573604702949524, 0.33457961678504944, -0.09683094173669815, -0.29481446743011475, -0.2844906449317932, 0.14476001262664795, 0.13972947001457214], [0.18844592571258545, -0.1463833749294281, -0.21736179292201996, -0.2853032648563385, -0.0805661678314209, 0.09175968915224075, -0.07341765612363815, 0.0053206318989396095, 0.3437720537185669, -0.10942799597978592, 0.07275298237800598, 0.2564866542816162, -0.07947718352079391, 0.03879940137267113, 0.28141656517982483, 0.34468981623649597], [-0.19488565623760223, 0.36267486214637756, -0.002869515912607312, -0.11244754493236542, 0.026584040373563766, 0.29194244742393494, 0.05165305361151695, -0.16575807332992554, 0.13993898034095764, -0.12760689854621887, -0.2325071394443512, -0.30073437094688416, -0.30026009678840637, -0.18484759330749512, -0.29282787442207336, 0.15383382141590118], [-0.17230692505836487, -0.0600578710436821, 0.23978455364704132, 0.03270832821726799, 0.16819210350513458, -0.27277109026908875, -0.1676396280527115, -0.36386677622795105, -0.19877192378044128, -0.09993180632591248, -0.1613079160451889, -0.3251367211341858, -0.30191677808761597, 0.025499526411294937, -0.23448793590068817, -0.04781726002693176], [0.04648791626095772, 0.1907389760017395, -0.28330138325691223, 0.2710856795310974, 0.15075887739658356, -0.33689191937446594, 0.32207947969436646, 0.25142702460289, -0.263094037771225, -0.11279087513685226, 0.2824370265007019, 0.1839226484298706, -0.24864013493061066, -0.1466883271932602, -0.08894379436969757, 0.046720534563064575], [0.13495266437530518, -0.03547246754169464, -0.015533572062849998, 0.22591617703437805, -0.2749598026275635, -0.2085837572813034, 0.2025613933801651, 0.263002872467041, 0.06163053587079048, 0.08138194680213928, -0.2161901444196701, -0.03314247727394104, -0.00511550810188055, -0.23758825659751892, -0.12801210582256317, -0.03594401478767395], [-0.3950030505657196, -0.14984458684921265, -0.1671553999185562, -0.18005356192588806, -0.3236510455608368, 0.32958802580833435, 0.008871562778949738, 0.181645929813385, 0.2630751430988312, -0.04368410259485245, -0.2443455159664154, 0.08160953223705292, 0.11378498375415802, 0.11839229613542557, 0.0098626259714365, -0.32071685791015625], [-0.1760319024324417, -0.03936760127544403, 0.0757126733660698, 0.05463684722781181, -0.10700809955596924, 0.3560788631439209, 0.11500541120767593, -0.16649261116981506, -0.25192204117774963, -0.23831193149089813, -0.1130407303571701, -0.20373156666755676, -0.1887550950050354, -0.13943520188331604, -0.2505617141723633, 0.27888911962509155], [-0.28074780106544495, 0.053822390735149384, -0.04264000803232193, 0.37486711144447327, -0.2576162815093994, -0.06054620072245598, 0.36254051327705383, 0.2755126953125, 0.27951228618621826, -0.15385769307613373, -0.1774275302886963, 0.15476499497890472, 0.2973015010356903, 0.005742726381868124, 0.0837138444185257, -0.11495807021856308], [0.2362697571516037, -0.1709824949502945, -0.09452415257692337, -0.006099831312894821, 0.05076928064227104, -0.21811307966709137, -0.225446417927742, 0.04990696161985397, -0.10414066910743713, 0.1055881530046463, -0.18630065023899078, -0.04627377539873123, -0.009698375128209591, -0.3568890392780304, -0.06727810949087143, -0.21448761224746704], [-0.27222272753715515, 0.38909170031547546, -0.09535540640354156, 0.26525744795799255, -0.125925213098526, 0.10065125674009323, 0.22684447467327118, 0.03523166477680206, 0.032364875078201294, -0.008699508383870125, -0.042309366166591644, 0.30920737981796265, 0.21924364566802979, 0.37710776925086975, -0.23864707350730896, 0.2076210379600525], [0.3516501784324646, -0.17309297621250153, -0.26474475860595703, 0.21447831392288208, 0.0936584547162056, 0.2159937024116516, -0.20209169387817383, 0.23415960371494293, -0.15017332136631012, -0.17911672592163086, -0.17104636132717133, 0.25598612427711487, 0.09987590461969376, -0.03952925652265549, -0.04320746287703514, 0.30959033966064453], [-0.0181875042617321, 0.2771274447441101, -0.027120143175125122, -0.03175628185272217, 0.028384797275066376, -0.18159359693527222, 0.2289409637451172, -0.04206390306353569, -0.14081700146198273, 0.33858972787857056, -0.013111920095980167, -0.009311111643910408, 0.24555498361587524, 0.139870285987854, -0.29716625809669495, 0.3625069558620453], [0.148840993642807, -0.07281027734279633, -0.2154066115617752, 0.2552284002304077, 0.13231870532035828, -0.014292830601334572, 0.323560893535614, 0.16653679311275482, -0.21191531419754028, -0.08052273094654083, -0.10776257514953613, 0.13798731565475464, -0.3570796847343445, 0.09981848299503326, 0.16489169001579285, 0.3113061487674713], [-0.05561999976634979, 0.27985337376594543, -0.23475632071495056, 0.29943352937698364, -0.20673711597919464, -0.11708897352218628, 0.2626412808895111, -0.28455325961112976, -0.1549011468887329, 0.21417118608951569, 0.21947503089904785, 0.06288506835699081, 0.09996914118528366, 0.08698052912950516, -0.12433984130620956, -0.05508578196167946], [-0.19941288232803345, 0.32796725630760193, 0.0391877181828022, -0.034162189811468124, 0.009151929058134556, 0.2879987955093384, -0.2047337144613266, 0.04306635633111, 0.06305035203695297, 0.12735871970653534, -0.27994808554649353, 0.26821938157081604, 0.2873043417930603, 0.08374277502298355, 0.1730244904756546, 0.3362981379032135], [0.08723088353872299, -0.29168617725372314, 0.03530144691467285, 0.017467446625232697, -0.10908741503953934, 0.21832537651062012, 0.2528343200683594, 0.3574323356151581, 0.02057631127536297, -0.31250032782554626, 0.31633979082107544, 0.2946651875972748, -0.2046765834093094, 0.23760446906089783, 0.32677143812179565, -0.03675643727183342], [0.013613871298730373, -0.12460362166166306, -0.27274784445762634, -0.16420269012451172, 0.16798874735832214, -0.3058348596096039, -0.16143706440925598, -0.02422180026769638, 0.07881374657154083, 0.2616513967514038, -0.1224672943353653, -0.0611131489276886, 0.21604706346988678, -0.08408453315496445, -0.12722180783748627, -0.07620026171207428], [-0.1944190412759781, -0.16300465166568756, -0.0005731616984121501, 0.005223440006375313, 0.3530406057834625, -0.15151846408843994, 0.11512045562267303, 0.10275405645370483, -0.2981112003326416, 0.15700247883796692, -0.1608312875032425, 0.29799139499664307, -0.28902262449264526, -0.09663975238800049, -0.31546440720558167, 0.41181784868240356], [0.05475964397192001, 0.12027131766080856, -0.2643493711948395, 0.22822833061218262, -0.1534571498632431, 0.23957934975624084, -0.15710142254829407, -0.26006263494491577, -0.3793588876724243, 0.035148873925209045, 0.11035922169685364, -0.34484389424324036, 0.15846368670463562, 0.018006417900323868, 0.0020715983118861914, 0.007111961953341961], [-0.0782884880900383, 0.07429567724466324, -0.20466278493404388, -0.19684259593486786, 0.20505401492118835, 0.3689703047275543, -0.13995422422885895, -0.10327485203742981, 0.1568564921617508, -0.09652794897556305, -0.3255082368850708, -0.18905195593833923, 0.19441764056682587, 0.07283641397953033, -0.3087346851825714, -0.23831351101398468], [-0.1528133898973465, 0.1674005538225174, -0.2967168092727661, -0.24340283870697021, 0.2480809986591339, -0.2594549357891083, 0.15107282996177673, -0.14835411310195923, -0.22845853865146637, -0.12505538761615753, 0.21250461041927338, 0.26372766494750977, 0.21839793026447296, -0.1305665820837021, 0.17807744443416595, -0.16672630608081818], [-0.09119853377342224, 0.33608540892601013, -0.3013143539428711, -0.23417435586452484, -0.19982855021953583, -0.2988724708557129, -0.2166360318660736, 0.09558937698602676, -0.004755598027259111, 0.28225770592689514, 0.2872205674648285, -0.06814069300889969, -0.19611434638500214, -0.13435815274715424, 0.10946647077798843, -0.13877184689044952], [0.14207328855991364, -0.004665178246796131, 0.02262384071946144, 0.012260336428880692, -0.0897715762257576, 0.2752128839492798, 0.24014034867286682, -0.2059425562620163, 0.31257936358451843, 0.027929602190852165, 0.34369710087776184, 0.2319834679365158, -0.07769418507814407, -0.39114415645599365, -0.1188170313835144, 0.08379778265953064], [0.08125689625740051, -0.11841392517089844, -0.21535000205039978, 0.21890123188495636, 0.3145171105861664, 0.05901626497507095, -0.20971718430519104, -0.11719229072332382, -0.2890221178531647, 0.28273189067840576, -0.20623181760311127, 0.09826387465000153, -0.1169850304722786, -0.008645627647638321, 0.1649860292673111, 0.2346402406692505], [-0.14778552949428558, -0.2794643044471741, -0.21701514720916748, 0.3446351885795593, 0.3146878480911255, 0.026325806975364685, 0.12414245307445526, 0.1297493278980255, -0.18855780363082886, 0.33735302090644836, 0.009635187685489655, -0.05012655630707741, -0.028365198522806168, -0.3553123474121094, -0.2190564125776291, 0.21975095570087433], [-0.24224664270877838, 0.12246972322463989, -0.1448281854391098, -0.02900104410946369, -0.09857296943664551, -0.13875149190425873, 0.2018369883298874, -0.18524257838726044, 0.03269050642848015, 0.03384219482541084, 0.17365629971027374, 0.2695285975933075, 0.12713751196861267, -0.15240761637687683, -0.34594854712486267, -0.11998333781957626], [0.12606044113636017, -0.2620738744735718, -0.001291267341002822, 0.12329831719398499, -0.06150417774915695, 0.14868341386318207, -0.22379735112190247, -0.3424703776836395, 0.17978666722774506, 0.0516306608915329, 0.1976887434720993, -0.08541496843099594, -0.2191164195537567, 0.26982948184013367, 0.15978747606277466, 0.18911434710025787], [-0.10304766893386841, 0.1271771937608719, -0.0715264156460762, -0.23013202846050262, 0.352762907743454, -0.30258411169052124, 0.37620604038238525, -0.08684106171131134, -0.1720944344997406, 0.08922882378101349, 0.3303678035736084, 0.11785006523132324, 0.17452862858772278, 0.1256544589996338, 0.13090156018733978, 0.3018060624599457], [-0.1185649186372757, 0.04565966874361038, -0.16070029139518738, 0.39824533462524414, 0.367580771446228, -0.36744293570518494, 0.19826991856098175, 0.25821349024772644, -0.2597649097442627, 0.10623074322938919, 0.35907793045043945, -0.3627126216888428, 0.10005351901054382, -0.09243719279766083, 0.3035959005355835, 0.3845798075199127], [0.35595762729644775, 0.030802104622125626, 0.21629269421100616, 0.28476694226264954, -0.08608539402484894, 0.19562485814094543, -0.2768593430519104, 0.0691399872303009, -0.18126319348812103, -0.21057727932929993, -0.24201500415802002, 0.15866486728191376, -0.13771887123584747, 0.12653878331184387, -0.24919816851615906, -0.08671458065509796], [0.05459504574537277, 0.23949065804481506, -0.09761830419301987, 0.11163712292909622, 0.29173964262008667, 0.0848487988114357, -0.1508903205394745, -0.28228768706321716, 0.31506145000457764, -0.2974739968776703, 0.3162514865398407, 0.07102079689502716, 0.3146425783634186, 0.1530943363904953, 0.41188520193099976, -0.06416990607976913]], "b2": [0.244564488530159, -0.01619265228509903, -0.014230085536837578, 0.14428889751434326, 0.3185107707977295, 0.29993459582328796, 0.243206188082695, -0.0986877903342247, -0.006233366206288338, 0.22755682468414307, -0.11928382515907288, -0.31046056747436523, -0.1388014256954193, -0.106563501060009, -0.12766477465629578, -0.13660304248332977], "W3": [[-0.5979162454605103], [-0.628520667552948], [0.5316985845565796], [-0.13718359172344208], [-0.19827894866466522], [0.1891653686761856], [-0.39069098234176636], [0.5502474308013916], [0.4067145586013794], [-0.5382354259490967], [-0.16696622967720032], [0.5130835771560669], [0.5127760171890259], [-0.0809190645813942], [0.1933644711971283], [-0.45348072052001953]], "b3": [0.5348760485649109]}